<?xml version="1.0"?>
<opencv_storage>
<cascade>
  <stageType>BOOST</stageType>
  <featureType>HAAR</featureType>
  <height>24</height>
  <width>24</width>
  <stageParams>
    <boostType>GAB</boostType>
    <minHitRate>9.9500000476837158e-01</minHitRate>
    <maxFalseAlarm>5.0000000000000000e-01</maxFalseAlarm>
    <weightTrimRate>9.4999998807907104e-01</weightTrimRate>
    <maxDepth>1</maxDepth>
    <maxWeakCount>100</maxWeakCount></stageParams>
  <featureParams>
    <maxCatCount>0</maxCatCount>
    <featSize>1</featSize>
    <mode>BASIC</mode></featureParams>
  <stageNum>15</stageNum>
  <stages>
    <!-- stage 0 -->
    <_>
      <maxWeakCount>4</maxWeakCount>
      <stageThreshold>-1.8567074537277222e+00</stageThreshold>
      <weakClassifiers>
        <_>
          <internalNodes>
            0 -1 55 8.6886033415794373e-02</internalNodes>
          <leafValues>
            -9.6603399515151978e-01 1.7948718369007111e-01</leafValues></_>
        <_>
          <internalNodes>
            0 -1 8 -4.6869907528162003e-03</internalNodes>
          <leafValues>
            3.3362948894500732e-01 -9.1067105531692505e-01</leafValues></_>
        <_>
          <internalNodes>
            0 -1 33 -9.8932795226573944e-03</internalNodes>
          <leafValues>
            6.5713602304458618e-01 -7.7359473705291748e-01</leafValues></_>
        <_>
          <internalNodes>
            0 -1 19 -1.0378440842032433e-02</internalNodes>
          <leafValues>
            8.3463841676712036e-01 -6.3713848590850830e-01</leafValues></_></weakClassifiers></_>
    <!-- stage 1 -->
    <_>
      <maxWeakCount>4</maxWeakCount>
      <stageThreshold>-1.8754333257675171e+00</stageThreshold>
      <weakClassifiers>
        <_>
          <internalNodes>
            0 -1 36 3.7331372499465942e-02</internalNodes>
          <leafValues>
            -9.5261597633361816e-01 1.8518517911434174e-01</leafValues></_>
        <_>
          <internalNodes>
            0 -1 51 3.9588134735822678e-02</internalNodes>
          <leafValues>
            -8.2428419589996338e-01 3.4964412450790405e-01</leafValues></_>
        <_>
          <internalNodes>
            0 -1 40 1.1120956391096115e-02</internalNodes>
          <leafValues>
            -6.5324914455413818e-01 5.7009345293045044e-01</leafValues></_>
        <_>
          <internalNodes>
            0 -1 22 -2.0415293984115124e-03</internalNodes>
          <leafValues>
            5.7393914461135864e-01 -6.1921226978302002e-01</leafValues></_></weakClassifiers></_>
    <!-- stage 2 -->
    <_>
      <maxWeakCount>4</maxWeakCount>
      <stageThreshold>-1.9835796356201172e+00</stageThreshold>
      <weakClassifiers>
        <_>
          <internalNodes>
            0 -1 29 5.9709914028644562e-02</internalNodes>
          <leafValues>
            -9.5800000429153442e-01 -5.0000000745058060e-02</leafValues></_>
        <_>
          <internalNodes>
            0 -1 11 -3.0424540862441063e-02</internalNodes>
          <leafValues>
            2.8193274140357971e-01 -8.3295530080795288e-01</leafValues></_>
        <_>
          <internalNodes>
            0 -1 38 -1.3730205595493317e-02</internalNodes>
          <leafValues>
            4.1989919543266296e-01 -6.7976522445678711e-01</leafValues></_>
        <_>
          <internalNodes>
            0 -1 44 -4.5581217855215073e-03</internalNodes>
          <leafValues>
            4.8714092373847961e-01 -5.5064892768859863e-01</leafValues></_></weakClassifiers></_>
    <!-- stage 3 -->
    <_>
      <maxWeakCount>3</maxWeakCount>
      <stageThreshold>-1.5408127307891846e+00</stageThreshold>
      <weakClassifiers>
        <_>
          <internalNodes>
            0 -1 64 3.3030040562152863e-02</internalNodes>
          <leafValues>
            -9.3974733352661133e-01 6.3636362552642822e-01</leafValues></_>
        <_>
          <internalNodes>
            0 -1 34 2.3735778406262398e-02</internalNodes>
          <leafValues>
            -7.6138627529144287e-01 6.2117886543273926e-01</leafValues></_>
        <_>
          <internalNodes>
            0 -1 12 -2.3366583627648652e-04</internalNodes>
          <leafValues>
            -9.3197232484817505e-01 1.6032084822654724e-01</leafValues></_></weakClassifiers></_>
    <!-- stage 4 -->
    <_>
      <maxWeakCount>4</maxWeakCount>
      <stageThreshold>-1.4521560668945313e+00</stageThreshold>
      <weakClassifiers>
        <_>
          <internalNodes>
            0 -1 14 -5.6271445751190186e-01</internalNodes>
          <leafValues>
            3.4482758492231369e-02 -9.5054399967193604e-01</leafValues></_>
        <_>
          <internalNodes>
            0 -1 35 4.5647475868463516e-02</internalNodes>
          <leafValues>
            -7.7398395538330078e-01 4.9872049689292908e-01</leafValues></_>
        <_>
          <internalNodes>
            0 -1 45 3.8008575211279094e-04</internalNodes>
          <leafValues>
            7.9896323382854462e-02 -9.4106328487396240e-01</leafValues></_>
        <_>
          <internalNodes>
            0 -1 20 -2.2199416707735509e-04</internalNodes>
          <leafValues>
            -9.4322431087493896e-01 1.9247560203075409e-01</leafValues></_></weakClassifiers></_>
    <!-- stage 5 -->
    <_>
      <maxWeakCount>5</maxWeakCount>
      <stageThreshold>-2.1041471958160400e+00</stageThreshold>
      <weakClassifiers>
        <_>
          <internalNodes>
            0 -1 49 1.6302539408206940e-01</internalNodes>
          <leafValues>
            -9.3798446655273438e-01 1.</leafValues></_>
        <_>
          <internalNodes>
            0 -1 62 1.0491576790809631e-01</internalNodes>
          <leafValues>
            -7.9620695114135742e-01 6.3304930925369263e-01</leafValues></_>
        <_>
          <internalNodes>
            0 -1 25 -4.2811472667381167e-04</internalNodes>
          <leafValues>
            -8.1740993261337280e-01 1.7626097798347473e-01</leafValues></_>
        <_>
          <internalNodes>
            0 -1 2 9.1217597946524620e-04</internalNodes>
          <leafValues>
            3.1600591540336609e-01 -7.9983901977539063e-01</leafValues></_>
        <_>
          <internalNodes>
            0 -1 4 1.2523015902843326e-04</internalNodes>
          <leafValues>
            2.5362226366996765e-01 -1.</leafValues></_></weakClassifiers></_>
    <!-- stage 6 -->
    <_>
      <maxWeakCount>5</maxWeakCount>
      <stageThreshold>-1.6414182186126709e+00</stageThreshold>
      <weakClassifiers>
        <_>
          <internalNodes>
            0 -1 23 -9.8418407142162323e-02</internalNodes>
          <leafValues>
            9.0909093618392944e-02 -9.4499015808105469e-01</leafValues></_>
        <_>
          <internalNodes>
            0 -1 16 -1.6127727925777435e-02</internalNodes>
          <leafValues>
            4.0879580378532410e-01 -8.2234787940979004e-01</leafValues></_>
        <_>
          <internalNodes>
            0 -1 58 -7.4557086918503046e-04</internalNodes>
          <leafValues>
            1.7727218568325043e-01 -8.5787296295166016e-01</leafValues></_>
        <_>
          <internalNodes>
            0 -1 30 -4.1488288843538612e-05</internalNodes>
          <leafValues>
            3.7845262885093689e-01 -6.3979268074035645e-01</leafValues></_>
        <_>
          <internalNodes>
            0 -1 50 -1.2742255348712206e-03</internalNodes>
          <leafValues>
            6.1992514133453369e-01 -4.2980498075485229e-01</leafValues></_></weakClassifiers></_>
    <!-- stage 7 -->
    <_>
      <maxWeakCount>3</maxWeakCount>
      <stageThreshold>-1.6454923152923584e+00</stageThreshold>
      <weakClassifiers>
        <_>
          <internalNodes>
            0 -1 47 1.9294384121894836e-01</internalNodes>
          <leafValues>
            -9.6003997325897217e-01 2.5641025975346565e-02</leafValues></_>
        <_>
          <internalNodes>
            0 -1 9 -1.4109712839126587e-01</internalNodes>
          <leafValues>
            4.2888898402452469e-02 -8.8217270374298096e-01</leafValues></_>
        <_>
          <internalNodes>
            0 -1 54 -2.6659143259166740e-05</internalNodes>
          <leafValues>
            2.4290709197521210e-01 -7.2834128141403198e-01</leafValues></_></weakClassifiers></_>
    <!-- stage 8 -->
    <_>
      <maxWeakCount>6</maxWeakCount>
      <stageThreshold>-2.3428905010223389e+00</stageThreshold>
      <weakClassifiers>
        <_>
          <internalNodes>
            0 -1 15 -4.6885266900062561e-02</internalNodes>
          <leafValues>
            1. -9.3236714601516724e-01</leafValues></_>
        <_>
          <internalNodes>
            0 -1 1 -3.5171657800674438e-01</internalNodes>
          <leafValues>
            1.4053758978843689e-01 -8.2822304964065552e-01</leafValues></_>
        <_>
          <internalNodes>
            0 -1 7 -3.9972417056560516e-02</internalNodes>
          <leafValues>
            4.8667380213737488e-01 -5.4673284292221069e-01</leafValues></_>
        <_>
          <internalNodes>
            0 -1 10 1.4103762805461884e-03</internalNodes>
          <leafValues>
            2.3578135669231415e-01 -1.</leafValues></_>
        <_>
          <internalNodes>
            0 -1 43 -1.3288744958117604e-04</internalNodes>
          <leafValues>
            -5.7122939825057983e-01 4.2976263165473938e-01</leafValues></_>
        <_>
          <internalNodes>
            0 -1 0 2.5069285184144974e-03</internalNodes>
          <leafValues>
            2.9988059401512146e-01 -8.5299003124237061e-01</leafValues></_></weakClassifiers></_>
    <!-- stage 9 -->
    <_>
      <maxWeakCount>5</maxWeakCount>
      <stageThreshold>-1.9887541532516479e+00</stageThreshold>
      <weakClassifiers>
        <_>
          <internalNodes>
            0 -1 52 1.1865781247615814e-01</internalNodes>
          <leafValues>
            -9.3768256902694702e-01 2.3076923191547394e-01</leafValues></_>
        <_>
          <internalNodes>
            0 -1 63 9.7734004259109497e-02</internalNodes>
          <leafValues>
            -7.6850110292434692e-01 4.1965067386627197e-01</leafValues></_>
        <_>
          <internalNodes>
            0 -1 24 3.5660876892507076e-04</internalNodes>
          <leafValues>
            -7.8886139392852783e-01 1.2823018431663513e-01</leafValues></_>
        <_>
          <internalNodes>
            0 -1 32 8.1034508184529841e-05</internalNodes>
          <leafValues>
            -6.2146139144897461e-01 2.9989114403724670e-01</leafValues></_>
        <_>
          <internalNodes>
            0 -1 42 -3.8418982876464725e-04</internalNodes>
          <leafValues>
            2.9023033380508423e-01 -7.1069180965423584e-01</leafValues></_></weakClassifiers></_>
    <!-- stage 10 -->
    <_>
      <maxWeakCount>6</maxWeakCount>
      <stageThreshold>-1.9564886093139648e+00</stageThreshold>
      <weakClassifiers>
        <_>
          <internalNodes>
            0 -1 6 -8.3631527423858643e-01</internalNodes>
          <leafValues>
            1. -9.3050193786621094e-01</leafValues></_>
        <_>
          <internalNodes>
            0 -1 5 -8.1737220287322998e-02</internalNodes>
          <leafValues>
            1.5314772725105286e-01 -7.7541762590408325e-01</leafValues></_>
        <_>
          <internalNodes>
            0 -1 17 2.3276200518012047e-02</internalNodes>
          <leafValues>
            -4.9224498867988586e-01 4.4333899021148682e-01</leafValues></_>
        <_>
          <internalNodes>
            0 -1 56 1.5541136963292956e-04</internalNodes>
          <leafValues>
            -7.8000885248184204e-01 2.7987545728683472e-01</leafValues></_>
        <_>
          <internalNodes>
            0 -1 13 -7.8896746039390564e-02</internalNodes>
          <leafValues>
            4.0055820345878601e-01 -5.6798565387725830e-01</leafValues></_>
        <_>
          <internalNodes>
            0 -1 53 -9.1661075130105019e-03</internalNodes>
          <leafValues>
            5.6698989868164063e-01 -4.0579780936241150e-01</leafValues></_></weakClassifiers></_>
    <!-- stage 11 -->
    <_>
      <maxWeakCount>5</maxWeakCount>
      <stageThreshold>-1.8467843532562256e+00</stageThreshold>
      <weakClassifiers>
        <_>
          <internalNodes>
            0 -1 21 9.5094263553619385e-02</internalNodes>
          <leafValues>
            -9.3230175971984863e-01 6.6666668653488159e-01</leafValues></_>
        <_>
          <internalNodes>
            0 -1 3 -7.3550564050674438e-01</internalNodes>
          <leafValues>
            5.1057136058807373e-01 -7.1742057800292969e-01</leafValues></_>
        <_>
          <internalNodes>
            0 -1 61 1.9212728366255760e-02</internalNodes>
          <leafValues>
            -5.3496241569519043e-01 4.5835903286933899e-01</leafValues></_>
        <_>
          <internalNodes>
            0 -1 59 -8.0963550135493279e-04</internalNodes>
          <leafValues>
            -9.6882230043411255e-01 2.1933798491954803e-01</leafValues></_>
        <_>
          <internalNodes>
            0 -1 18 8.0281146802008152e-04</internalNodes>
          <leafValues>
            1.9154803454875946e-01 -8.7475907802581787e-01</leafValues></_></weakClassifiers></_>
    <!-- stage 12 -->
    <_>
      <maxWeakCount>6</maxWeakCount>
      <stageThreshold>-1.9557311534881592e+00</stageThreshold>
      <weakClassifiers>
        <_>
          <internalNodes>
            0 -1 26 7.8973785042762756e-02</internalNodes>
          <leafValues>
            -9.3236714601516724e-01 1.</leafValues></_>
        <_>
          <internalNodes>
            0 -1 41 -6.0750454664230347e-02</internalNodes>
          <leafValues>
            3.8986447453498840e-01 -7.3359513282775879e-01</leafValues></_>
        <_>
          <internalNodes>
            0 -1 28 -4.6988420188426971e-02</internalNodes>
          <leafValues>
            6.3220959901809692e-01 -4.3994313478469849e-01</leafValues></_>
        <_>
          <internalNodes>
            0 -1 66 -3.0189164681360126e-04</internalNodes>
          <leafValues>
            -8.5827153921127319e-01 2.6671642065048218e-01</leafValues></_>
        <_>
          <internalNodes>
            0 -1 59 -1.3683670658792835e-05</internalNodes>
          <leafValues>
            4.7464054822921753e-01 -4.6378192305564880e-01</leafValues></_>
        <_>
          <internalNodes>
            0 -1 60 4.4962379615753889e-04</internalNodes>
          <leafValues>
            3.4723973274230957e-01 -7.5999927520751953e-01</leafValues></_></weakClassifiers></_>
    <!-- stage 13 -->
    <_>
      <maxWeakCount>5</maxWeakCount>
      <stageThreshold>-2.1703071594238281e+00</stageThreshold>
      <weakClassifiers>
        <_>
          <internalNodes>
            0 -1 37 -9.1797500848770142e-02</internalNodes>
          <leafValues>
            6.6666668653488159e-01 -9.3230175971984863e-01</leafValues></_>
        <_>
          <internalNodes>
            0 -1 31 -1.0171404480934143e-01</internalNodes>
          <leafValues>
            -1.9497619569301605e-01 -8.4490591287612915e-01</leafValues></_>
        <_>
          <internalNodes>
            0 -1 59 3.9824255509302020e-04</internalNodes>
          <leafValues>
            1.0503721982240677e-01 -7.8833729028701782e-01</leafValues></_>
        <_>
          <internalNodes>
            0 -1 27 3.9641316107008606e-05</internalNodes>
          <leafValues>
            1.7423760890960693e-01 -8.4558302164077759e-01</leafValues></_>
        <_>
          <internalNodes>
            0 -1 57 2.9189018532633781e-03</internalNodes>
          <leafValues>
            2.2100016474723816e-01 -8.4589421749114990e-01</leafValues></_></weakClassifiers></_>
    <!-- stage 14 -->
    <_>
      <maxWeakCount>5</maxWeakCount>
      <stageThreshold>-1.7148066759109497e+00</stageThreshold>
      <weakClassifiers>
        <_>
          <internalNodes>
            0 -1 46 -4.5256581157445908e-02</internalNodes>
          <leafValues>
            1. -9.3236714601516724e-01</leafValues></_>
        <_>
          <internalNodes>
            0 -1 48 1.7290446162223816e-01</internalNodes>
          <leafValues>
            -7.0090216398239136e-01 7.0313572883605957e-01</leafValues></_>
        <_>
          <internalNodes>
            0 -1 39 -4.6531908214092255e-02</internalNodes>
          <leafValues>
            5.2403056621551514e-01 -5.0068718194961548e-01</leafValues></_>
        <_>
          <internalNodes>
            0 -1 65 -1.0965610999846831e-04</internalNodes>
          <leafValues>
            -9.3152004480361938e-01 2.2071726620197296e-01</leafValues></_>
        <_>
          <internalNodes>
            0 -1 67 -5.6295619287993759e-05</internalNodes>
          <leafValues>
            -7.5961202383041382e-01 1.9843250513076782e-01</leafValues></_></weakClassifiers></_></stages>
  <features>
    <_>
      <rects>
        <_>
          0 0 6 4 -1.</_>
        <_>
          2 0 2 4 3.</_></rects>
      <tilted>0</tilted></_>
    <_>
      <rects>
        <_>
          0 0 19 24 -1.</_>
        <_>
          0 8 19 8 3.</_></rects>
      <tilted>0</tilted></_>
    <_>
      <rects>
        <_>
          0 1 2 8 -1.</_>
        <_>
          0 5 2 4 2.</_></rects>
      <tilted>0</tilted></_>
    <_>
      <rects>
        <_>
          0 2 24 19 -1.</_>
        <_>
          8 2 8 19 3.</_></rects>
      <tilted>0</tilted></_>
    <_>
      <rects>
        <_>
          0 5 2 6 -1.</_>
        <_>
          0 5 1 3 2.</_>
        <_>
          1 8 1 3 2.</_></rects>
      <tilted>0</tilted></_>
    <_>
      <rects>
        <_>
          0 5 6 14 -1.</_>
        <_>
          3 5 3 14 2.</_></rects>
      <tilted>0</tilted></_>
    <_>
      <rects>
        <_>
          0 5 24 15 -1.</_>
        <_>
          8 5 8 15 3.</_></rects>
      <tilted>0</tilted></_>
    <_>
      <rects>
        <_>
          0 10 9 10 -1.</_>
        <_>
          3 10 3 10 3.</_></rects>
      <tilted>0</tilted></_>
    <_>
      <rects>
        <_>
          0 13 8 1 -1.</_>
        <_>
          4 13 4 1 2.</_></rects>
      <tilted>0</tilted></_>
    <_>
      <rects>
        <_>
          0 16 24 8 -1.</_>
        <_>
          8 16 8 8 3.</_></rects>
      <tilted>0</tilted></_>
    <_>
      <rects>
        <_>
          0 18 2 6 -1.</_>
        <_>
          0 21 2 3 2.</_></rects>
      <tilted>0</tilted></_>
    <_>
      <rects>
        <_>
          0 21 21 1 -1.</_>
        <_>
          7 21 7 1 3.</_></rects>
      <tilted>0</tilted></_>
    <_>
      <rects>
        <_>
          1 0 1 6 -1.</_>
        <_>
          1 3 1 3 2.</_></rects>
      <tilted>0</tilted></_>
    <_>
      <rects>
        <_>
          1 0 7 24 -1.</_>
        <_>
          1 8 7 8 3.</_></rects>
      <tilted>0</tilted></_>
    <_>
      <rects>
        <_>
          1 0 22 24 -1.</_>
        <_>
          1 8 22 8 3.</_></rects>
      <tilted>0</tilted></_>
    <_>
      <rects>
        <_>
          1 11 6 4 -1.</_>
        <_>
          4 11 3 4 2.</_></rects>
      <tilted>0</tilted></_>
    <_>
      <rects>
        <_>
          1 16 4 4 -1.</_>
        <_>
          3 16 2 4 2.</_></rects>
      <tilted>0</tilted></_>
    <_>
      <rects>
        <_>
          1 16 12 4 -1.</_>
        <_>
          5 16 4 4 3.</_></rects>
      <tilted>0</tilted></_>
    <_>
      <rects>
        <_>
          2 0 4 2 -1.</_>
        <_>
          4 0 2 2 2.</_></rects>
      <tilted>0</tilted></_>
    <_>
      <rects>
        <_>
          2 0 6 10 -1.</_>
        <_>
          4 0 2 10 3.</_></rects>
      <tilted>0</tilted></_>
    <_>
      <rects>
        <_>
          2 2 3 3 -1.</_>
        <_>
          3 2 1 3 3.</_></rects>
      <tilted>0</tilted></_>
    <_>
      <rects>
        <_>
          2 4 8 12 -1.</_>
        <_>
          2 8 8 4 3.</_></rects>
      <tilted>0</tilted></_>
    <_>
      <rects>
        <_>
          2 6 7 2 -1.</_>
        <_>
          2 7 7 1 2.</_></rects>
      <tilted>0</tilted></_>
    <_>
      <rects>
        <_>
          2 11 8 9 -1.</_>
        <_>
          6 11 4 9 2.</_></rects>
      <tilted>0</tilted></_>
    <_>
      <rects>
        <_>
          2 18 15 2 -1.</_>
        <_>
          2 19 15 1 2.</_></rects>
      <tilted>0</tilted></_>
    <_>
      <rects>
        <_>
          3 2 2 2 -1.</_>
        <_>
          4 2 1 2 2.</_></rects>
      <tilted>0</tilted></_>
    <_>
      <rects>
        <_>
          4 5 6 9 -1.</_>
        <_>
          4 8 6 3 3.</_></rects>
      <tilted>0</tilted></_>
    <_>
      <rects>
        <_>
          5 0 3 1 -1.</_>
        <_>
          6 0 1 1 3.</_></rects>
      <tilted>0</tilted></_>
    <_>
      <rects>
        <_>
          5 0 6 8 -1.</_>
        <_>
          5 4 6 4 2.</_></rects>
      <tilted>0</tilted></_>
    <_>
      <rects>
        <_>
          5 18 11 6 -1.</_>
        <_>
          5 21 11 3 2.</_></rects>
      <tilted>0</tilted></_>
    <_>
      <rects>
        <_>
          6 17 2 1 -1.</_>
        <_>
          7 17 1 1 2.</_></rects>
      <tilted>0</tilted></_>
    <_>
      <rects>
        <_>
          7 0 17 10 -1.</_>
        <_>
          7 5 17 5 2.</_></rects>
      <tilted>0</tilted></_>
    <_>
      <rects>
        <_>
          7 3 2 10 -1.</_>
        <_>
          7 3 1 5 2.</_>
        <_>
          8 8 1 5 2.</_></rects>
      <tilted>0</tilted></_>
    <_>
      <rects>
        <_>
          7 9 9 3 -1.</_>
        <_>
          10 9 3 3 3.</_></rects>
      <tilted>0</tilted></_>
    <_>
      <rects>
        <_>
          7 20 6 4 -1.</_>
        <_>
          7 22 6 2 2.</_></rects>
      <tilted>0</tilted></_>
    <_>
      <rects>
        <_>
          7 20 14 4 -1.</_>
        <_>
          7 22 14 2 2.</_></rects>
      <tilted>0</tilted></_>
    <_>
      <rects>
        <_>
          8 20 11 4 -1.</_>
        <_>
          8 22 11 2 2.</_></rects>
      <tilted>0</tilted></_>
    <_>
      <rects>
        <_>
          11 4 8 16 -1.</_>
        <_>
          11 4 4 8 2.</_>
        <_>
          15 12 4 8 2.</_></rects>
      <tilted>0</tilted></_>
    <_>
      <rects>
        <_>
          11 4 10 4 -1.</_>
        <_>
          11 6 10 2 2.</_></rects>
      <tilted>0</tilted></_>
    <_>
      <rects>
        <_>
          11 16 12 7 -1.</_>
        <_>
          15 16 4 7 3.</_></rects>
      <tilted>0</tilted></_>
    <_>
      <rects>
        <_>
          12 0 8 6 -1.</_>
        <_>
          12 2 8 2 3.</_></rects>
      <tilted>0</tilted></_>
    <_>
      <rects>
        <_>
          12 7 9 7 -1.</_>
        <_>
          15 7 3 7 3.</_></rects>
      <tilted>0</tilted></_>
    <_>
      <rects>
        <_>
          12 9 7 2 -1.</_>
        <_>
          12 10 7 1 2.</_></rects>
      <tilted>0</tilted></_>
    <_>
      <rects>
        <_>
          13 0 8 1 -1.</_>
        <_>
          17 0 4 1 2.</_></rects>
      <tilted>0</tilted></_>
    <_>
      <rects>
        <_>
          13 12 1 12 -1.</_>
        <_>
          13 16 1 4 3.</_></rects>
      <tilted>0</tilted></_>
    <_>
      <rects>
        <_>
          14 0 6 1 -1.</_>
        <_>
          17 0 3 1 2.</_></rects>
      <tilted>0</tilted></_>
    <_>
      <rects>
        <_>
          14 1 10 8 -1.</_>
        <_>
          14 1 5 4 2.</_>
        <_>
          19 5 5 4 2.</_></rects>
      <tilted>0</tilted></_>
    <_>
      <rects>
        <_>
          14 4 10 18 -1.</_>
        <_>
          19 4 5 18 2.</_></rects>
      <tilted>0</tilted></_>
    <_>
      <rects>
        <_>
          14 6 8 13 -1.</_>
        <_>
          18 6 4 13 2.</_></rects>
      <tilted>0</tilted></_>
    <_>
      <rects>
        <_>
          14 7 8 12 -1.</_>
        <_>
          18 7 4 12 2.</_></rects>
      <tilted>0</tilted></_>
    <_>
      <rects>
        <_>
          14 8 3 2 -1.</_>
        <_>
          15 8 1 2 3.</_></rects>
      <tilted>0</tilted></_>
    <_>
      <rects>
        <_>
          14 16 10 3 -1.</_>
        <_>
          19 16 5 3 2.</_></rects>
      <tilted>0</tilted></_>
    <_>
      <rects>
        <_>
          15 4 6 15 -1.</_>
        <_>
          18 4 3 15 2.</_></rects>
      <tilted>0</tilted></_>
    <_>
      <rects>
        <_>
          15 4 6 6 -1.</_>
        <_>
          15 6 6 2 3.</_></rects>
      <tilted>0</tilted></_>
    <_>
      <rects>
        <_>
          15 12 2 1 -1.</_>
        <_>
          16 12 1 1 2.</_></rects>
      <tilted>0</tilted></_>
    <_>
      <rects>
        <_>
          16 4 8 13 -1.</_>
        <_>
          20 4 4 13 2.</_></rects>
      <tilted>0</tilted></_>
    <_>
      <rects>
        <_>
          16 6 2 18 -1.</_>
        <_>
          16 6 1 9 2.</_>
        <_>
          17 15 1 9 2.</_></rects>
      <tilted>0</tilted></_>
    <_>
      <rects>
        <_>
          16 23 8 1 -1.</_>
        <_>
          20 23 4 1 2.</_></rects>
      <tilted>0</tilted></_>
    <_>
      <rects>
        <_>
          17 7 7 4 -1.</_>
        <_>
          17 9 7 2 2.</_></rects>
      <tilted>0</tilted></_>
    <_>
      <rects>
        <_>
          17 11 3 3 -1.</_>
        <_>
          17 12 3 1 3.</_></rects>
      <tilted>0</tilted></_>
    <_>
      <rects>
        <_>
          17 13 3 10 -1.</_>
        <_>
          18 13 1 10 3.</_></rects>
      <tilted>0</tilted></_>
    <_>
      <rects>
        <_>
          18 0 6 10 -1.</_>
        <_>
          18 0 3 5 2.</_>
        <_>
          21 5 3 5 2.</_></rects>
      <tilted>0</tilted></_>
    <_>
      <rects>
        <_>
          18 4 6 16 -1.</_>
        <_>
          21 4 3 16 2.</_></rects>
      <tilted>0</tilted></_>
    <_>
      <rects>
        <_>
          18 5 6 14 -1.</_>
        <_>
          21 5 3 14 2.</_></rects>
      <tilted>0</tilted></_>
    <_>
      <rects>
        <_>
          20 13 4 5 -1.</_>
        <_>
          22 13 2 5 2.</_></rects>
      <tilted>0</tilted></_>
    <_>
      <rects>
        <_>
          22 19 2 4 -1.</_>
        <_>
          22 19 1 2 2.</_>
        <_>
          23 21 1 2 2.</_></rects>
      <tilted>0</tilted></_>
    <_>
      <rects>
        <_>
          23 1 1 6 -1.</_>
        <_>
          23 4 1 3 2.</_></rects>
      <tilted>0</tilted></_>
    <_>
      <rects>
        <_>
          23 12 1 6 -1.</_>
        <_>
          23 14 1 2 3.</_></rects>
      <tilted>0</tilted></_></features></cascade>
</opencv_storage>
